Language model created by QuickLM on Tue Jan 17 18:58:14 EST 2023
Copyright (c) 1996-2010 Carnegie Mellon University and Alexander I. Rudnicky

The model is in standard ARPA format, designed by Doug Paul while he was at MITRE.

The code that was used to produce this language model is available in Open Source.
Please visit http://www.speech.cs.cmu.edu/tools/ for more information

The (fixed) discount mass is 0.5. The backoffs are computed using the ratio method.
This model based on a corpus of 76 sentences and 90 words

\data\
ngram 1=90
ngram 2=164
ngram 3=94

\1-grams:
-0.8112 </s> -0.3010
-0.8112 <s> -0.2282
-2.6920 ACCELERATE -0.2282
-2.6920 ACCESS -0.3001
-2.6920 AMPLIFY -0.2282
-2.6920 AOE -0.2282
-2.6920 BLINK -0.2282
-2.6920 BLOCK -0.2282
-2.6920 BOUNCE -0.2282
-2.6920 BREAK -0.2282
-2.6920 CAST -0.2282
-2.6920 COLD -0.3001
-2.2148 CONJURE -0.2984
-2.6920 CRAFT -0.2282
-2.6920 CRUSH -0.2282
-2.6920 CUT -0.2282
-2.6920 DAMPEN -0.2282
-2.6920 DECELERATE -0.2282
-2.6920 DECOY -0.2282
-2.6920 DELAY -0.2282
-2.6920 DISPEL -0.2282
-2.6920 DOWN -0.2282
-2.6920 DURATION -0.3001
-2.6920 ENDER -0.3001
-2.6920 EVAPORATE -0.2282
-2.6920 EXCHANGE -0.2282
-2.6920 EXPLOSION -0.2282
-2.6920 EXTEND -0.3001
-2.6920 EXTRACT -0.2282
-2.6920 FANGS -0.2282
-2.6920 FELL -0.2282
-2.6920 FIREWORK -0.2282
-2.6920 FLARE -0.2282
-2.6920 FORTUNE -0.2282
-2.6920 FREEZE -0.2282
-2.6920 GLIDE -0.2282
-2.6920 GRAVITY -0.2282
-2.6920 GROW -0.2282
-2.6920 HARM -0.2282
-2.6920 HARVEST -0.2282
-2.6920 HEAL -0.2282
-2.6920 HEX -0.2282
-2.6920 IGNITE -0.2282
-2.6920 INFUSE -0.2282
-2.6920 INTANGIBLE -0.2282
-2.6920 INTERACT -0.2282
-2.6920 INVENTORY -0.2282
-2.6920 INVISIBILITY -0.2282
-2.6920 ITEM -0.3001
-2.6920 KNOCKBACK -0.2282
-2.6920 LAUNCH -0.2282
-2.6920 LEAP -0.2282
-2.6920 LIGHTNING -0.2282
-2.6920 LINGER -0.2282
-2.6920 MAGEBLOCK -0.2282
-2.6920 MAGELIGHT -0.2282
-2.6920 MAGIC -0.2282
-2.6920 NAME -0.2282
-2.6920 ORBIT -0.2282
-2.6920 PICKUP -0.2282
-2.6920 PIERCE -0.2282
-2.6920 PLACE -0.3001
-2.6920 PROJECTILE -0.2282
-2.6920 PULL -0.2282
-2.6920 REDSTONE -0.3001
-2.6920 ROTATE -0.2282
-2.6920 RUNE -0.2282
-2.6920 SELF -0.2282
-2.6920 SENSE -0.3001
-2.6920 SENSITIVE -0.2282
-2.6920 SHEAR -0.2282
-2.6920 SIGNAL -0.2282
-2.6920 SLOWFALL -0.2282
-2.6920 SMELT -0.2282
-2.6920 SNAP -0.2282
-2.6920 SNARE -0.2282
-2.6920 SPLIT -0.2282
-2.6920 STEED -0.2282
-1.9930 SUMMON -0.2966
-2.6920 TIME -0.2282
-2.6920 TOSS -0.2282
-2.6920 TOUCH -0.2282
-2.6920 UNDEAD -0.2282
-2.6920 UNDERFOOT -0.2282
-2.6920 VEX -0.2282
-2.6920 WALL -0.2282
-2.6920 WATER -0.2282
-2.6920 WIND -0.3001
-2.6920 WITHER -0.2282
-2.6920 WOLVES -0.2282

\2-grams:
-2.1818 <s> ACCELERATE 0.0000
-2.1818 <s> ACCESS 0.0000
-2.1818 <s> AMPLIFY 0.0000
-2.1818 <s> AOE 0.0000
-2.1818 <s> BLINK 0.0000
-2.1818 <s> BOUNCE 0.0000
-2.1818 <s> BREAK 0.0000
-2.1818 <s> CAST 0.0000
-2.1818 <s> COLD 0.0000
-1.7047 <s> CONJURE 0.0000
-2.1818 <s> CRAFT 0.0000
-2.1818 <s> CRUSH 0.0000
-2.1818 <s> CUT 0.0000
-2.1818 <s> DAMPEN 0.0000
-2.1818 <s> DECELERATE 0.0000
-2.1818 <s> DELAY 0.0000
-2.1818 <s> DISPEL 0.0000
-2.1818 <s> DURATION 0.0000
-2.1818 <s> EVAPORATE 0.0000
-2.1818 <s> EXCHANGE 0.0000
-2.1818 <s> EXPLOSION 0.0000
-2.1818 <s> EXTEND 0.0000
-2.1818 <s> EXTRACT 0.0000
-2.1818 <s> FANGS 0.0000
-2.1818 <s> FELL 0.0000
-2.1818 <s> FIREWORK 0.0000
-2.1818 <s> FLARE 0.0000
-2.1818 <s> FORTUNE 0.0000
-2.1818 <s> FREEZE 0.0000
-2.1818 <s> GLIDE 0.0000
-2.1818 <s> GRAVITY 0.0000
-2.1818 <s> GROW 0.0000
-2.1818 <s> HARM 0.0000
-2.1818 <s> HARVEST 0.0000
-2.1818 <s> HEAL 0.0000
-2.1818 <s> HEX 0.0000
-2.1818 <s> IGNITE 0.0000
-2.1818 <s> INFUSE 0.0000
-2.1818 <s> INTANGIBLE 0.0000
-2.1818 <s> INTERACT 0.0000
-2.1818 <s> INVISIBILITY 0.0000
-2.1818 <s> ITEM 0.0000
-2.1818 <s> KNOCKBACK 0.0000
-2.1818 <s> LAUNCH 0.0000
-2.1818 <s> LEAP 0.0000
-2.1818 <s> LIGHTNING 0.0000
-2.1818 <s> LINGER 0.0000
-2.1818 <s> NAME 0.0000
-2.1818 <s> ORBIT 0.0000
-2.1818 <s> PIERCE 0.0000
-2.1818 <s> PLACE 0.0000
-2.1818 <s> PROJECTILE 0.0000
-2.1818 <s> PULL 0.0000
-2.1818 <s> REDSTONE 0.0000
-2.1818 <s> ROTATE 0.0000
-2.1818 <s> RUNE 0.0000
-2.1818 <s> SELF 0.0000
-2.1818 <s> SENSE 0.0000
-2.1818 <s> SENSITIVE 0.0000
-2.1818 <s> SLOWFALL 0.0000
-2.1818 <s> SMELT 0.0000
-2.1818 <s> SNARE 0.0000
-2.1818 <s> SPLIT 0.0000
-1.4829 <s> SUMMON 0.0000
-2.1818 <s> TOSS 0.0000
-2.1818 <s> TOUCH 0.0000
-2.1818 <s> UNDERFOOT 0.0000
-2.1818 <s> WALL 0.0000
-2.1818 <s> WIND 0.0000
-2.1818 <s> WITHER 0.0000
-0.3010 ACCELERATE </s> -0.3010
-0.3010 ACCESS ENDER 0.0000
-0.3010 AMPLIFY </s> -0.3010
-0.3010 AOE </s> -0.3010
-0.3010 BLINK </s> -0.3010
-0.3010 BLOCK </s> -0.3010
-0.3010 BOUNCE </s> -0.3010
-0.3010 BREAK </s> -0.3010
-0.3010 CAST </s> -0.3010
-0.3010 COLD SNAP 0.0000
-0.7782 CONJURE MAGEBLOCK 0.0000
-0.7782 CONJURE MAGELIGHT 0.0000
-0.7782 CONJURE WATER 0.0000
-0.3010 CRAFT </s> -0.3010
-0.3010 CRUSH </s> -0.3010
-0.3010 CUT </s> -0.3010
-0.3010 DAMPEN </s> -0.3010
-0.3010 DECELERATE </s> -0.3010
-0.3010 DECOY </s> -0.3010
-0.3010 DELAY </s> -0.3010
-0.3010 DISPEL </s> -0.3010
-0.3010 DOWN </s> -0.3010
-0.3010 DURATION DOWN 0.0000
-0.3010 ENDER INVENTORY 0.0000
-0.3010 EVAPORATE </s> -0.3010
-0.3010 EXCHANGE </s> -0.3010
-0.3010 EXPLOSION </s> -0.3010
-0.3010 EXTEND TIME 0.0000
-0.3010 EXTRACT </s> -0.3010
-0.3010 FANGS </s> -0.3010
-0.3010 FELL </s> -0.3010
-0.3010 FIREWORK </s> -0.3010
-0.3010 FLARE </s> -0.3010
-0.3010 FORTUNE </s> -0.3010
-0.3010 FREEZE </s> -0.3010
-0.3010 GLIDE </s> -0.3010
-0.3010 GRAVITY </s> -0.3010
-0.3010 GROW </s> -0.3010
-0.3010 HARM </s> -0.3010
-0.3010 HARVEST </s> -0.3010
-0.3010 HEAL </s> -0.3010
-0.3010 HEX </s> -0.3010
-0.3010 IGNITE </s> -0.3010
-0.3010 INFUSE </s> -0.3010
-0.3010 INTANGIBLE </s> -0.3010
-0.3010 INTERACT </s> -0.3010
-0.3010 INVENTORY </s> -0.3010
-0.3010 INVISIBILITY </s> -0.3010
-0.3010 ITEM PICKUP 0.0000
-0.3010 KNOCKBACK </s> -0.3010
-0.3010 LAUNCH </s> -0.3010
-0.3010 LEAP </s> -0.3010
-0.3010 LIGHTNING </s> -0.3010
-0.3010 LINGER </s> -0.3010
-0.3010 MAGEBLOCK </s> -0.3010
-0.3010 MAGELIGHT </s> -0.3010
-0.3010 MAGIC </s> -0.3010
-0.3010 NAME </s> -0.3010
-0.3010 ORBIT </s> -0.3010
-0.3010 PICKUP </s> -0.3010
-0.3010 PIERCE </s> -0.3010
-0.3010 PLACE BLOCK 0.0000
-0.3010 PROJECTILE </s> -0.3010
-0.3010 PULL </s> -0.3010
-0.3010 REDSTONE SIGNAL 0.0000
-0.3010 ROTATE </s> -0.3010
-0.3010 RUNE </s> -0.3010
-0.3010 SELF </s> -0.3010
-0.3010 SENSE MAGIC 0.0000
-0.3010 SENSITIVE </s> -0.3010
-0.3010 SHEAR </s> -0.3010
-0.3010 SIGNAL </s> -0.3010
-0.3010 SLOWFALL </s> -0.3010
-0.3010 SMELT </s> -0.3010
-0.3010 SNAP </s> -0.3010
-0.3010 SNARE </s> -0.3010
-0.3010 SPLIT </s> -0.3010
-0.3010 STEED </s> -0.3010
-1.0000 SUMMON DECOY 0.0000
-1.0000 SUMMON STEED 0.0000
-1.0000 SUMMON UNDEAD 0.0000
-1.0000 SUMMON VEX 0.0000
-1.0000 SUMMON WOLVES 0.0000
-0.3010 TIME </s> -0.3010
-0.3010 TOSS </s> -0.3010
-0.3010 TOUCH </s> -0.3010
-0.3010 UNDEAD </s> -0.3010
-0.3010 UNDERFOOT </s> -0.3010
-0.3010 VEX </s> -0.3010
-0.3010 WALL </s> -0.3010
-0.3010 WATER </s> -0.3010
-0.3010 WIND SHEAR 0.0000
-0.3010 WITHER </s> -0.3010
-0.3010 WOLVES </s> -0.3010

\3-grams:
-0.3010 <s> ACCELERATE </s>
-0.3010 <s> ACCESS ENDER
-0.3010 <s> AMPLIFY </s>
-0.3010 <s> AOE </s>
-0.3010 <s> BLINK </s>
-0.3010 <s> BOUNCE </s>
-0.3010 <s> BREAK </s>
-0.3010 <s> CAST </s>
-0.3010 <s> COLD SNAP
-0.7782 <s> CONJURE MAGEBLOCK
-0.7782 <s> CONJURE MAGELIGHT
-0.7782 <s> CONJURE WATER
-0.3010 <s> CRAFT </s>
-0.3010 <s> CRUSH </s>
-0.3010 <s> CUT </s>
-0.3010 <s> DAMPEN </s>
-0.3010 <s> DECELERATE </s>
-0.3010 <s> DELAY </s>
-0.3010 <s> DISPEL </s>
-0.3010 <s> DURATION DOWN
-0.3010 <s> EVAPORATE </s>
-0.3010 <s> EXCHANGE </s>
-0.3010 <s> EXPLOSION </s>
-0.3010 <s> EXTEND TIME
-0.3010 <s> EXTRACT </s>
-0.3010 <s> FANGS </s>
-0.3010 <s> FELL </s>
-0.3010 <s> FIREWORK </s>
-0.3010 <s> FLARE </s>
-0.3010 <s> FORTUNE </s>
-0.3010 <s> FREEZE </s>
-0.3010 <s> GLIDE </s>
-0.3010 <s> GRAVITY </s>
-0.3010 <s> GROW </s>
-0.3010 <s> HARM </s>
-0.3010 <s> HARVEST </s>
-0.3010 <s> HEAL </s>
-0.3010 <s> HEX </s>
-0.3010 <s> IGNITE </s>
-0.3010 <s> INFUSE </s>
-0.3010 <s> INTANGIBLE </s>
-0.3010 <s> INTERACT </s>
-0.3010 <s> INVISIBILITY </s>
-0.3010 <s> ITEM PICKUP
-0.3010 <s> KNOCKBACK </s>
-0.3010 <s> LAUNCH </s>
-0.3010 <s> LEAP </s>
-0.3010 <s> LIGHTNING </s>
-0.3010 <s> LINGER </s>
-0.3010 <s> NAME </s>
-0.3010 <s> ORBIT </s>
-0.3010 <s> PIERCE </s>
-0.3010 <s> PLACE BLOCK
-0.3010 <s> PROJECTILE </s>
-0.3010 <s> PULL </s>
-0.3010 <s> REDSTONE SIGNAL
-0.3010 <s> ROTATE </s>
-0.3010 <s> RUNE </s>
-0.3010 <s> SELF </s>
-0.3010 <s> SENSE MAGIC
-0.3010 <s> SENSITIVE </s>
-0.3010 <s> SLOWFALL </s>
-0.3010 <s> SMELT </s>
-0.3010 <s> SNARE </s>
-0.3010 <s> SPLIT </s>
-1.0000 <s> SUMMON DECOY
-1.0000 <s> SUMMON STEED
-1.0000 <s> SUMMON UNDEAD
-1.0000 <s> SUMMON VEX
-1.0000 <s> SUMMON WOLVES
-0.3010 <s> TOSS </s>
-0.3010 <s> TOUCH </s>
-0.3010 <s> UNDERFOOT </s>
-0.3010 <s> WALL </s>
-0.3010 <s> WIND SHEAR
-0.3010 <s> WITHER </s>
-0.3010 ACCESS ENDER INVENTORY
-0.3010 COLD SNAP </s>
-0.3010 CONJURE MAGEBLOCK </s>
-0.3010 CONJURE MAGELIGHT </s>
-0.3010 CONJURE WATER </s>
-0.3010 DURATION DOWN </s>
-0.3010 ENDER INVENTORY </s>
-0.3010 EXTEND TIME </s>
-0.3010 ITEM PICKUP </s>
-0.3010 PLACE BLOCK </s>
-0.3010 REDSTONE SIGNAL </s>
-0.3010 SENSE MAGIC </s>
-0.3010 SUMMON DECOY </s>
-0.3010 SUMMON STEED </s>
-0.3010 SUMMON UNDEAD </s>
-0.3010 SUMMON VEX </s>
-0.3010 SUMMON WOLVES </s>
-0.3010 WIND SHEAR </s>

\end\
